digraph Tree {
node [shape=box, style="filled", color="black", fontname="helvetica"] ;
edge [fontname="helvetica"] ;
0 [label="A_G_ALL <= 133.5\ngini = 0.5\nsamples = 1023\nvalue = [511.5, 511.5]\nclass = Not Inducted", fillcolor="#ffffff"] ;
1 [label="PI_W <= 1.5\ngini = 0.042\nsamples = 65\nvalue = [2.671, 121.407]\nclass = Inducted", fillcolor="#3d9fe6"] ;
0 -> 1 [labeldistance=2.5, labelangle=45, headlabel="True"] ;
2 [label="FI_InnOuts <= 371.0\ngini = 0.011\nsamples = 62\nvalue = [0.668, 121.407]\nclass = Inducted", fillcolor="#3a9ee5"] ;
1 -> 2 ;
3 [label="gini = 0.0\nsamples = 59\nvalue = [0.0, 117.426]\nclass = Inducted", fillcolor="#399de5"] ;
2 -> 3 ;
4 [label="B_SB <= 0.5\ngini = 0.246\nsamples = 3\nvalue = [0.668, 3.981]\nclass = Inducted", fillcolor="#5aade9"] ;
2 -> 4 ;
5 [label="gini = 0.0\nsamples = 2\nvalue = [0.0, 3.981]\nclass = Inducted", fillcolor="#399de5"] ;
4 -> 5 ;
6 [label="gini = -0.0\nsamples = 1\nvalue = [0.668, 0.0]\nclass = Not Inducted", fillcolor="#e58139"] ;
4 -> 6 ;
7 [label="PI_SV <= 1.0\ngini = 0.0\nsamples = 3\nvalue = [2.003, 0.0]\nclass = Not Inducted", fillcolor="#e58139"] ;
1 -> 7 ;
8 [label="gini = 0.0\nsamples = 1\nvalue = [0.668, 0.0]\nclass = Not Inducted", fillcolor="#e58139"] ;
7 -> 8 ;
9 [label="gini = 0.0\nsamples = 2\nvalue = [1.336, 0.0]\nclass = Not Inducted", fillcolor="#e58139"] ;
7 -> 9 ;
10 [label="B_R <= 2252.5\ngini = 0.491\nsamples = 958\nvalue = [508.829, 390.093]\nclass = Not Inducted", fillcolor="#f9e2d1"] ;
0 -> 10 [labeldistance=2.5, labelangle=-45, headlabel="False"] ;
11 [label="PI_W <= 235.5\ngini = 0.441\nsamples = 847\nvalue = [486.125, 236.842]\nclass = Not Inducted", fillcolor="#f2be99"] ;
10 -> 11 ;
12 [label="ASF_NUM_YEARS <= 5.5\ngini = 0.38\nsamples = 804\nvalue = [481.451, 165.193]\nclass = Not Inducted", fillcolor="#eeac7d"] ;
11 -> 12 ;
13 [label="FI_E <= 261.5\ngini = 0.297\nsamples = 721\nvalue = [448.063, 99.514]\nclass = Not Inducted", fillcolor="#eb9d65"] ;
12 -> 13 ;
14 [label="PI_CG <= 174.5\ngini = 0.216\nsamples = 644\nvalue = [410.669, 57.718]\nclass = Not Inducted", fillcolor="#e99355"] ;
13 -> 14 ;
15 [label="B_AB <= 1259.5\ngini = 0.168\nsamples = 606\nvalue = [391.304, 39.805]\nclass = Not Inducted", fillcolor="#e88e4d"] ;
14 -> 15 ;
16 [label="FI_InnOuts <= 0.5\ngini = 0.154\nsamples = 603\nvalue = [390.636, 35.825]\nclass = Not Inducted", fillcolor="#e78d4b"] ;
15 -> 16 ;
17 [label="B_HR <= 534.5\ngini = 0.38\nsamples = 97\nvalue = [58.095, 19.903]\nclass = Not Inducted", fillcolor="#eeac7d"] ;
16 -> 17 ;
18 [label="gini = 0.0\nsamples = 56\nvalue = [37.394, 0.0]\nclass = Not Inducted", fillcolor="#e58139"] ;
17 -> 18 ;
19 [label="B_RBI <= 45.5\ngini = 0.5\nsamples = 41\nvalue = [20.7, 19.903]\nclass = Not Inducted", fillcolor="#fefaf7"] ;
17 -> 19 ;
20 [label="gini = 0.0\nsamples = 11\nvalue = [7.345, 0.0]\nclass = Not Inducted", fillcolor="#e58139"] ;
19 -> 20 ;
21 [label="B_SB <= 75.0\ngini = 0.481\nsamples = 30\nvalue = [13.355, 19.903]\nclass = Inducted", fillcolor="#bedff6"] ;
19 -> 21 ;
22 [label="ASF_NUM_YEARS <= 4.0\ngini = 0.354\nsamples = 17\nvalue = [5.342, 17.912]\nclass = Inducted", fillcolor="#74baed"] ;
21 -> 22 ;
23 [label="B_RBI <= 178.5\ngini = 0.328\nsamples = 16\nvalue = [4.674, 17.912]\nclass = Inducted", fillcolor="#6db7ec"] ;
22 -> 23 ;
24 [label="A_G_ALL <= 1061.5\ngini = 0.299\nsamples = 15\nvalue = [4.007, 17.912]\nclass = Inducted", fillcolor="#65b3eb"] ;
23 -> 24 ;
25 [label="gini = 0.0\nsamples = 1\nvalue = [0.668, 0.0]\nclass = Not Inducted", fillcolor="#e58139"] ;
24 -> 25 ;
26 [label="B_SB <= 0.5\ngini = 0.265\nsamples = 14\nvalue = [3.339, 17.912]\nclass = Inducted", fillcolor="#5eafea"] ;
24 -> 26 ;
27 [label="gini = 0.0\nsamples = 1\nvalue = [0.668, 0.0]\nclass = Not Inducted", fillcolor="#e58139"] ;
26 -> 27 ;
28 [label="FI_E <= 140.5\ngini = 0.226\nsamples = 13\nvalue = [2.671, 17.912]\nclass = Inducted", fillcolor="#57ace9"] ;
26 -> 28 ;
29 [label="A_G_ALL <= 1328.5\ngini = 0.087\nsamples = 8\nvalue = [0.668, 13.932]\nclass = Inducted", fillcolor="#42a2e6"] ;
28 -> 29 ;
30 [label="FI_E <= 92.0\ngini = 0.246\nsamples = 3\nvalue = [0.668, 3.981]\nclass = Inducted", fillcolor="#5aade9"] ;
29 -> 30 ;
31 [label="gini = 0.0\nsamples = 2\nvalue = [0.0, 3.981]\nclass = Inducted", fillcolor="#399de5"] ;
30 -> 31 ;
32 [label="gini = -0.0\nsamples = 1\nvalue = [0.668, 0.0]\nclass = Not Inducted", fillcolor="#e58139"] ;
30 -> 32 ;
33 [label="gini = 0.0\nsamples = 5\nvalue = [0.0, 9.951]\nclass = Inducted", fillcolor="#399de5"] ;
29 -> 33 ;
34 [label="FI_A <= 1264.0\ngini = 0.445\nsamples = 5\nvalue = [2.003, 3.981]\nclass = Inducted", fillcolor="#9dcef2"] ;
28 -> 34 ;
35 [label="gini = 0.0\nsamples = 3\nvalue = [2.003, 0.0]\nclass = Not Inducted", fillcolor="#e58139"] ;
34 -> 35 ;
36 [label="gini = 0.0\nsamples = 2\nvalue = [0.0, 3.981]\nclass = Inducted", fillcolor="#399de5"] ;
34 -> 36 ;
37 [label="gini = -0.0\nsamples = 1\nvalue = [0.668, 0.0]\nclass = Not Inducted", fillcolor="#e58139"] ;
23 -> 37 ;
38 [label="gini = -0.0\nsamples = 1\nvalue = [0.668, 0.0]\nclass = Not Inducted", fillcolor="#e58139"] ;
22 -> 38 ;
39 [label="FI_A <= 135.5\ngini = 0.319\nsamples = 13\nvalue = [8.013, 1.99]\nclass = Not Inducted", fillcolor="#eba06a"] ;
21 -> 39 ;
40 [label="gini = 0.0\nsamples = 1\nvalue = [0.0, 1.99]\nclass = Inducted", fillcolor="#399de5"] ;
39 -> 40 ;
41 [label="gini = 0.0\nsamples = 12\nvalue = [8.013, 0.0]\nclass = Not Inducted", fillcolor="#e58139"] ;
39 -> 41 ;
42 [label="A_G_ALL <= 224.5\ngini = 0.087\nsamples = 506\nvalue = [332.542, 15.922]\nclass = Not Inducted", fillcolor="#e68742"] ;
16 -> 42 ;
43 [label="B_SB <= 2.0\ngini = 0.496\nsamples = 7\nvalue = [3.339, 3.981]\nclass = Inducted", fillcolor="#dfeffb"] ;
42 -> 43 ;
44 [label="gini = 0.0\nsamples = 5\nvalue = [3.339, 0.0]\nclass = Not Inducted", fillcolor="#e58139"] ;
43 -> 44 ;
45 [label="gini = 0.0\nsamples = 2\nvalue = [0.0, 3.981]\nclass = Inducted", fillcolor="#399de5"] ;
43 -> 45 ;
46 [label="A_GP <= 1067.0\ngini = 0.068\nsamples = 499\nvalue = [329.203, 11.942]\nclass = Not Inducted", fillcolor="#e68640"] ;
42 -> 46 ;
47 [label="B_RBI <= 324.0\ngini = 0.057\nsamples = 497\nvalue = [328.535, 9.951]\nclass = Not Inducted", fillcolor="#e6853f"] ;
46 -> 47 ;
48 [label="FI_E <= 239.0\ngini = 0.036\nsamples = 479\nvalue = [317.851, 5.971]\nclass = Not Inducted", fillcolor="#e5833d"] ;
47 -> 48 ;
49 [label="FI_InnOuts <= 1612.5\ngini = 0.025\nsamples = 469\nvalue = [311.841, 3.981]\nclass = Not Inducted", fillcolor="#e5833c"] ;
48 -> 49 ;
50 [label="FI_InnOuts <= 1454.0\ngini = 0.226\nsamples = 21\nvalue = [13.355, 1.99]\nclass = Not Inducted", fillcolor="#e99457"] ;
49 -> 50 ;
51 [label="gini = 0.0\nsamples = 20\nvalue = [13.355, 0.0]\nclass = Not Inducted", fillcolor="#e58139"] ;
50 -> 51 ;
52 [label="gini = 0.0\nsamples = 1\nvalue = [0.0, 1.99]\nclass = Inducted", fillcolor="#399de5"] ;
50 -> 52 ;
53 [label="FI_GS <= 245.5\ngini = 0.013\nsamples = 448\nvalue = [298.486, 1.99]\nclass = Not Inducted", fillcolor="#e5823a"] ;
49 -> 53 ;
54 [label="FI_GS <= 243.0\ngini = 0.061\nsamples = 92\nvalue = [60.766, 1.99]\nclass = Not Inducted", fillcolor="#e6853f"] ;
53 -> 54 ;
55 [label="gini = 0.0\nsamples = 90\nvalue = [60.098, 0.0]\nclass = Not Inducted", fillcolor="#e58139"] ;
54 -> 55 ;
56 [label="PI_SO <= 761.0\ngini = 0.376\nsamples = 2\nvalue = [0.668, 1.99]\nclass = Inducted", fillcolor="#7bbeee"] ;
54 -> 56 ;
57 [label="gini = 0.0\nsamples = 1\nvalue = [0.0, 1.99]\nclass = Inducted", fillcolor="#399de5"] ;
56 -> 57 ;
58 [label="gini = -0.0\nsamples = 1\nvalue = [0.668, 0.0]\nclass = Not Inducted", fillcolor="#e58139"] ;
56 -> 58 ;
59 [label="PI_W <= 42.0\ngini = 0.0\nsamples = 356\nvalue = [237.721, 0.0]\nclass = Not Inducted", fillcolor="#e58139"] ;
53 -> 59 ;
60 [label="gini = 0.0\nsamples = 252\nvalue = [168.274, 0.0]\nclass = Not Inducted", fillcolor="#e58139"] ;
59 -> 60 ;
61 [label="gini = 0.0\nsamples = 104\nvalue = [69.446, 0.0]\nclass = Not Inducted", fillcolor="#e58139"] ;
59 -> 61 ;
62 [label="FI_E <= 241.5\ngini = 0.374\nsamples = 10\nvalue = [6.01, 1.99]\nclass = Not Inducted", fillcolor="#eeab7b"] ;
48 -> 62 ;
63 [label="gini = 0.0\nsamples = 1\nvalue = [0.0, 1.99]\nclass = Inducted", fillcolor="#399de5"] ;
62 -> 63 ;
64 [label="gini = 0.0\nsamples = 9\nvalue = [6.01, 0.0]\nclass = Not Inducted", fillcolor="#e58139"] ;
62 -> 64 ;
65 [label="B_SB <= 6.0\ngini = 0.396\nsamples = 18\nvalue = [10.684, 3.981]\nclass = Not Inducted", fillcolor="#efb083"] ;
47 -> 65 ;
66 [label="B_R <= 1836.0\ngini = 0.246\nsamples = 3\nvalue = [0.668, 3.981]\nclass = Inducted", fillcolor="#5aade9"] ;
65 -> 66 ;
67 [label="gini = 0.0\nsamples = 2\nvalue = [0.0, 3.981]\nclass = Inducted", fillcolor="#399de5"] ;
66 -> 67 ;
68 [label="gini = -0.0\nsamples = 1\nvalue = [0.668, 0.0]\nclass = Not Inducted", fillcolor="#e58139"] ;
66 -> 68 ;
69 [label="gini = 0.0\nsamples = 15\nvalue = [10.016, 0.0]\nclass = Not Inducted", fillcolor="#e58139"] ;
65 -> 69 ;
70 [label="PI_AVG_ERA <= 3.524\ngini = 0.376\nsamples = 2\nvalue = [0.668, 1.99]\nclass = Inducted", fillcolor="#7bbeee"] ;
46 -> 70 ;
71 [label="gini = 0.0\nsamples = 1\nvalue = [0.0, 1.99]\nclass = Inducted", fillcolor="#399de5"] ;
70 -> 71 ;
72 [label="gini = -0.0\nsamples = 1\nvalue = [0.668, 0.0]\nclass = Not Inducted", fillcolor="#e58139"] ;
70 -> 72 ;
73 [label="B_SO <= 58.5\ngini = 0.246\nsamples = 3\nvalue = [0.668, 3.981]\nclass = Inducted", fillcolor="#5aade9"] ;
15 -> 73 ;
74 [label="gini = 0.0\nsamples = 2\nvalue = [0.0, 3.981]\nclass = Inducted", fillcolor="#399de5"] ;
73 -> 74 ;
75 [label="gini = -0.0\nsamples = 1\nvalue = [0.668, 0.0]\nclass = Not Inducted", fillcolor="#e58139"] ;
73 -> 75 ;
76 [label="B_R <= 229.0\ngini = 0.499\nsamples = 38\nvalue = [19.365, 17.912]\nclass = Not Inducted", fillcolor="#fdf6f0"] ;
14 -> 76 ;
77 [label="PI_CG <= 207.0\ngini = 0.44\nsamples = 22\nvalue = [8.681, 17.912]\nclass = Inducted", fillcolor="#99ccf2"] ;
76 -> 77 ;
78 [label="B_RBI <= 5.5\ngini = 0.468\nsamples = 12\nvalue = [6.678, 3.981]\nclass = Not Inducted", fillcolor="#f4ccaf"] ;
77 -> 78 ;
79 [label="gini = 0.0\nsamples = 9\nvalue = [6.01, 0.0]\nclass = Not Inducted", fillcolor="#e58139"] ;
78 -> 79 ;
80 [label="FI_GS <= 81.5\ngini = 0.246\nsamples = 3\nvalue = [0.668, 3.981]\nclass = Inducted", fillcolor="#5aade9"] ;
78 -> 80 ;
81 [label="gini = 0.0\nsamples = 2\nvalue = [0.0, 3.981]\nclass = Inducted", fillcolor="#399de5"] ;
80 -> 81 ;
82 [label="gini = -0.0\nsamples = 1\nvalue = [0.668, 0.0]\nclass = Not Inducted", fillcolor="#e58139"] ;
80 -> 82 ;
83 [label="B_H <= 19.5\ngini = 0.22\nsamples = 10\nvalue = [2.003, 13.932]\nclass = Inducted", fillcolor="#55abe9"] ;
77 -> 83 ;
84 [label="gini = 0.0\nsamples = 3\nvalue = [2.003, 0.0]\nclass = Not Inducted", fillcolor="#e58139"] ;
83 -> 84 ;
85 [label="B_RBI <= 0.5\ngini = 0.0\nsamples = 7\nvalue = [0.0, 13.932]\nclass = Inducted", fillcolor="#399de5"] ;
83 -> 85 ;
86 [label="gini = 0.0\nsamples = 1\nvalue = [0.0, 1.99]\nclass = Inducted", fillcolor="#399de5"] ;
85 -> 86 ;
87 [label="gini = 0.0\nsamples = 6\nvalue = [0.0, 11.942]\nclass = Inducted", fillcolor="#399de5"] ;
85 -> 87 ;
88 [label="gini = -0.0\nsamples = 16\nvalue = [10.684, 0.0]\nclass = Not Inducted", fillcolor="#e58139"] ;
76 -> 88 ;
89 [label="FI_InnOuts <= 42184.5\ngini = 0.498\nsamples = 77\nvalue = [37.394, 41.796]\nclass = Inducted", fillcolor="#eaf5fc"] ;
13 -> 89 ;
90 [label="B_AB <= 766.5\ngini = 0.483\nsamples = 64\nvalue = [28.713, 41.796]\nclass = Inducted", fillcolor="#c1e0f7"] ;
89 -> 90 ;
91 [label="FI_GS <= 125.5\ngini = 0.448\nsamples = 34\nvalue = [19.365, 9.951]\nclass = Not Inducted", fillcolor="#f2c29f"] ;
90 -> 91 ;
92 [label="B_R <= 1421.0\ngini = 0.498\nsamples = 22\nvalue = [11.352, 9.951]\nclass = Not Inducted", fillcolor="#fcefe7"] ;
91 -> 92 ;
93 [label="B_R <= 1291.5\ngini = 0.489\nsamples = 16\nvalue = [7.345, 9.951]\nclass = Inducted", fillcolor="#cbe5f8"] ;
92 -> 93 ;
94 [label="A_G_ALL <= 742.0\ngini = 0.456\nsamples = 13\nvalue = [7.345, 3.981]\nclass = Not Inducted", fillcolor="#f3c5a4"] ;
93 -> 94 ;
95 [label="PI_BB <= 1.0\ngini = 0.246\nsamples = 3\nvalue = [0.668, 3.981]\nclass = Inducted", fillcolor="#5aade9"] ;
94 -> 95 ;
96 [label="gini = 0.0\nsamples = 2\nvalue = [0.0, 3.981]\nclass = Inducted", fillcolor="#399de5"] ;
95 -> 96 ;
97 [label="gini = -0.0\nsamples = 1\nvalue = [0.668, 0.0]\nclass = Not Inducted", fillcolor="#e58139"] ;
95 -> 97 ;
98 [label="gini = 0.0\nsamples = 10\nvalue = [6.678, 0.0]\nclass = Not Inducted", fillcolor="#e58139"] ;
94 -> 98 ;
99 [label="gini = 0.0\nsamples = 3\nvalue = [0.0, 5.971]\nclass = Inducted", fillcolor="#399de5"] ;
93 -> 99 ;
100 [label="gini = -0.0\nsamples = 6\nvalue = [4.007, 0.0]\nclass = Not Inducted", fillcolor="#e58139"] ;
92 -> 100 ;
101 [label="gini = -0.0\nsamples = 12\nvalue = [8.013, 0.0]\nclass = Not Inducted", fillcolor="#e58139"] ;
91 -> 101 ;
102 [label="A_G_ALL <= 1916.0\ngini = 0.351\nsamples = 30\nvalue = [9.349, 31.844]\nclass = Inducted", fillcolor="#73baed"] ;
90 -> 102 ;
103 [label="PI_AVG_ERA <= 5.691\ngini = 0.246\nsamples = 24\nvalue = [5.342, 31.844]\nclass = Inducted", fillcolor="#5aade9"] ;
102 -> 103 ;
104 [label="B_H <= 366.5\ngini = 0.172\nsamples = 21\nvalue = [3.339, 31.844]\nclass = Inducted", fillcolor="#4ea7e8"] ;
103 -> 104 ;
105 [label="FI_DP <= 879.5\ngini = 0.111\nsamples = 19\nvalue = [2.003, 31.844]\nclass = Inducted", fillcolor="#45a3e7"] ;
104 -> 105 ;
106 [label="B_RBI <= 493.0\ngini = 0.046\nsamples = 15\nvalue = [0.668, 27.864]\nclass = Inducted", fillcolor="#3e9fe6"] ;
105 -> 106 ;
107 [label="gini = 0.0\nsamples = 13\nvalue = [0.0, 25.874]\nclass = Inducted", fillcolor="#399de5"] ;
106 -> 107 ;
108 [label="FI_GS <= 37.0\ngini = 0.376\nsamples = 2\nvalue = [0.668, 1.99]\nclass = Inducted", fillcolor="#7bbeee"] ;
106 -> 108 ;
109 [label="gini = 0.0\nsamples = 1\nvalue = [0.0, 1.99]\nclass = Inducted", fillcolor="#399de5"] ;
108 -> 109 ;
110 [label="gini = -0.0\nsamples = 1\nvalue = [0.668, 0.0]\nclass = Not Inducted", fillcolor="#e58139"] ;
108 -> 110 ;
111 [label="B_HR <= 620.0\ngini = 0.376\nsamples = 4\nvalue = [1.336, 3.981]\nclass = Inducted", fillcolor="#7bbeee"] ;
105 -> 111 ;
112 [label="gini = 0.0\nsamples = 2\nvalue = [0.0, 3.981]\nclass = Inducted", fillcolor="#399de5"] ;
111 -> 112 ;
113 [label="ASF_NUM_YEARS <= 1.0\ngini = 0.0\nsamples = 2\nvalue = [1.336, 0.0]\nclass = Not Inducted", fillcolor="#e58139"] ;
111 -> 113 ;
114 [label="gini = 0.0\nsamples = 1\nvalue = [0.668, 0.0]\nclass = Not Inducted", fillcolor="#e58139"] ;
113 -> 114 ;
115 [label="gini = 0.0\nsamples = 1\nvalue = [0.668, 0.0]\nclass = Not Inducted", fillcolor="#e58139"] ;
113 -> 115 ;
116 [label="gini = -0.0\nsamples = 2\nvalue = [1.336, 0.0]\nclass = Not Inducted", fillcolor="#e58139"] ;
104 -> 116 ;
117 [label="gini = -0.0\nsamples = 3\nvalue = [2.003, 0.0]\nclass = Not Inducted", fillcolor="#e58139"] ;
103 -> 117 ;
118 [label="gini = -0.0\nsamples = 6\nvalue = [4.007, 0.0]\nclass = Not Inducted", fillcolor="#e58139"] ;
102 -> 118 ;
119 [label="B_HR <= 595.0\ngini = 0.0\nsamples = 13\nvalue = [8.681, 0.0]\nclass = Not Inducted", fillcolor="#e58139"] ;
89 -> 119 ;
120 [label="gini = 0.0\nsamples = 1\nvalue = [0.668, 0.0]\nclass = Not Inducted", fillcolor="#e58139"] ;
119 -> 120 ;
121 [label="gini = 0.0\nsamples = 12\nvalue = [8.013, 0.0]\nclass = Not Inducted", fillcolor="#e58139"] ;
119 -> 121 ;
122 [label="FI_GS <= 1100.0\ngini = 0.447\nsamples = 83\nvalue = [33.388, 65.679]\nclass = Inducted", fillcolor="#9ecff2"] ;
12 -> 122 ;
123 [label="B_R <= 3.5\ngini = 0.347\nsamples = 52\nvalue = [16.026, 55.728]\nclass = Inducted", fillcolor="#72b9ec"] ;
122 -> 123 ;
124 [label="gini = 0.0\nsamples = 3\nvalue = [2.003, 0.0]\nclass = Not Inducted", fillcolor="#e58139"] ;
123 -> 124 ;
125 [label="B_SB <= 61.0\ngini = 0.321\nsamples = 49\nvalue = [14.023, 55.728]\nclass = Inducted", fillcolor="#6bb6ec"] ;
123 -> 125 ;
126 [label="PI_BB <= 1108.0\ngini = 0.292\nsamples = 46\nvalue = [12.02, 55.728]\nclass = Inducted", fillcolor="#64b2eb"] ;
125 -> 126 ;
127 [label="FI_DP <= 1476.0\ngini = 0.232\nsamples = 38\nvalue = [8.013, 51.747]\nclass = Inducted", fillcolor="#58ace9"] ;
126 -> 127 ;
128 [label="FI_InnOuts <= 2756.0\ngini = 0.218\nsamples = 37\nvalue = [7.345, 51.747]\nclass = Inducted", fillcolor="#55abe9"] ;
127 -> 128 ;
129 [label="A_G_ALL <= 1624.5\ngini = 0.356\nsamples = 19\nvalue = [6.01, 19.903]\nclass = Inducted", fillcolor="#75bbed"] ;
128 -> 129 ;
130 [label="PI_BB <= 928.0\ngini = 0.489\nsamples = 10\nvalue = [5.342, 3.981]\nclass = Not Inducted", fillcolor="#f8dfcd"] ;
129 -> 130 ;
131 [label="B_RBI <= 67.5\ngini = 0.396\nsamples = 9\nvalue = [5.342, 1.99]\nclass = Not Inducted", fillcolor="#efb083"] ;
130 -> 131 ;
132 [label="gini = 0.0\nsamples = 8\nvalue = [5.342, 0.0]\nclass = Not Inducted", fillcolor="#e58139"] ;
131 -> 132 ;
133 [label="gini = 0.0\nsamples = 1\nvalue = [0.0, 1.99]\nclass = Inducted", fillcolor="#399de5"] ;
131 -> 133 ;
134 [label="gini = 0.0\nsamples = 1\nvalue = [0.0, 1.99]\nclass = Inducted", fillcolor="#399de5"] ;
130 -> 134 ;
135 [label="A_G_ALL <= 1931.0\ngini = 0.077\nsamples = 9\nvalue = [0.668, 15.922]\nclass = Inducted", fillcolor="#41a1e6"] ;
129 -> 135 ;
136 [label="gini = -0.0\nsamples = 7\nvalue = [0.0, 13.932]\nclass = Inducted", fillcolor="#399de5"] ;
135 -> 136 ;
137 [label="FI_A <= 2030.0\ngini = 0.376\nsamples = 2\nvalue = [0.668, 1.99]\nclass = Inducted", fillcolor="#7bbeee"] ;
135 -> 137 ;
138 [label="gini = 0.0\nsamples = 1\nvalue = [0.0, 1.99]\nclass = Inducted", fillcolor="#399de5"] ;
137 -> 138 ;
139 [label="gini = -0.0\nsamples = 1\nvalue = [0.668, 0.0]\nclass = Not Inducted", fillcolor="#e58139"] ;
137 -> 139 ;
140 [label="PI_SO <= 2985.5\ngini = 0.077\nsamples = 18\nvalue = [1.336, 31.844]\nclass = Inducted", fillcolor="#41a1e6"] ;
128 -> 140 ;
141 [label="B_SO <= 64.5\ngini = 0.04\nsamples = 17\nvalue = [0.668, 31.844]\nclass = Inducted", fillcolor="#3d9fe6"] ;
140 -> 141 ;
142 [label="gini = 0.0\nsamples = 15\nvalue = [0.0, 29.854]\nclass = Inducted", fillcolor="#399de5"] ;
141 -> 142 ;
143 [label="FI_E <= 68.5\ngini = 0.376\nsamples = 2\nvalue = [0.668, 1.99]\nclass = Inducted", fillcolor="#7bbeee"] ;
141 -> 143 ;
144 [label="gini = 0.0\nsamples = 1\nvalue = [0.0, 1.99]\nclass = Inducted", fillcolor="#399de5"] ;
143 -> 144 ;
145 [label="gini = -0.0\nsamples = 1\nvalue = [0.668, 0.0]\nclass = Not Inducted", fillcolor="#e58139"] ;
143 -> 145 ;
146 [label="gini = -0.0\nsamples = 1\nvalue = [0.668, 0.0]\nclass = Not Inducted", fillcolor="#e58139"] ;
140 -> 146 ;
147 [label="gini = -0.0\nsamples = 1\nvalue = [0.668, 0.0]\nclass = Not Inducted", fillcolor="#e58139"] ;
127 -> 147 ;
148 [label="ASF_NUM_YEARS <= 6.5\ngini = 0.5\nsamples = 8\nvalue = [4.007, 3.981]\nclass = Not Inducted", fillcolor="#fffefe"] ;
126 -> 148 ;
149 [label="B_RBI <= 0.5\ngini = 0.0\nsamples = 6\nvalue = [4.007, 0.0]\nclass = Not Inducted", fillcolor="#e58139"] ;
148 -> 149 ;
150 [label="gini = 0.0\nsamples = 4\nvalue = [2.671, 0.0]\nclass = Not Inducted", fillcolor="#e58139"] ;
149 -> 150 ;
151 [label="gini = 0.0\nsamples = 2\nvalue = [1.336, 0.0]\nclass = Not Inducted", fillcolor="#e58139"] ;
149 -> 151 ;
152 [label="gini = 0.0\nsamples = 2\nvalue = [0.0, 3.981]\nclass = Inducted", fillcolor="#399de5"] ;
148 -> 152 ;
153 [label="FI_A <= 105.0\ngini = 0.0\nsamples = 3\nvalue = [2.003, 0.0]\nclass = Not Inducted", fillcolor="#e58139"] ;
125 -> 153 ;
154 [label="gini = 0.0\nsamples = 1\nvalue = [0.668, 0.0]\nclass = Not Inducted", fillcolor="#e58139"] ;
153 -> 154 ;
155 [label="gini = 0.0\nsamples = 2\nvalue = [1.336, 0.0]\nclass = Not Inducted", fillcolor="#e58139"] ;
153 -> 155 ;
156 [label="B_HR <= 1324.5\ngini = 0.463\nsamples = 31\nvalue = [17.362, 9.951]\nclass = Not Inducted", fillcolor="#f4c9aa"] ;
122 -> 156 ;
157 [label="A_G_ALL <= 2138.0\ngini = 0.303\nsamples = 28\nvalue = [17.362, 3.981]\nclass = Not Inducted", fillcolor="#eb9e66"] ;
156 -> 157 ;
158 [label="FI_E <= 52.5\ngini = 0.0\nsamples = 23\nvalue = [15.358, 0.0]\nclass = Not Inducted", fillcolor="#e58139"] ;
157 -> 158 ;
159 [label="gini = 0.0\nsamples = 1\nvalue = [0.668, 0.0]\nclass = Not Inducted", fillcolor="#e58139"] ;
158 -> 159 ;
160 [label="gini = 0.0\nsamples = 22\nvalue = [14.691, 0.0]\nclass = Not Inducted", fillcolor="#e58139"] ;
158 -> 160 ;
161 [label="B_AB <= 1109.0\ngini = 0.445\nsamples = 5\nvalue = [2.003, 3.981]\nclass = Inducted", fillcolor="#9dcef2"] ;
157 -> 161 ;
162 [label="gini = 0.0\nsamples = 2\nvalue = [0.0, 3.981]\nclass = Inducted", fillcolor="#399de5"] ;
161 -> 162 ;
163 [label="gini = -0.0\nsamples = 3\nvalue = [2.003, 0.0]\nclass = Not Inducted", fillcolor="#e58139"] ;
161 -> 163 ;
164 [label="gini = -0.0\nsamples = 3\nvalue = [0.0, 5.971]\nclass = Inducted", fillcolor="#399de5"] ;
156 -> 164 ;
165 [label="PI_AVG_ERA <= 4.1\ngini = 0.115\nsamples = 43\nvalue = [4.674, 71.65]\nclass = Inducted", fillcolor="#46a3e7"] ;
11 -> 165 ;
166 [label="PI_CG <= 168.5\ngini = 0.085\nsamples = 41\nvalue = [3.339, 71.65]\nclass = Inducted", fillcolor="#42a2e6"] ;
165 -> 166 ;
167 [label="PI_CG <= 113.5\ngini = 0.427\nsamples = 7\nvalue = [2.671, 5.971]\nclass = Inducted", fillcolor="#92c9f1"] ;
166 -> 167 ;
168 [label="gini = 0.0\nsamples = 3\nvalue = [0.0, 5.971]\nclass = Inducted", fillcolor="#399de5"] ;
167 -> 168 ;
169 [label="gini = -0.0\nsamples = 4\nvalue = [2.671, 0.0]\nclass = Not Inducted", fillcolor="#e58139"] ;
167 -> 169 ;
170 [label="PI_SV <= 56.0\ngini = 0.02\nsamples = 34\nvalue = [0.668, 65.679]\nclass = Inducted", fillcolor="#3b9ee5"] ;
166 -> 170 ;
171 [label="gini = 0.0\nsamples = 33\nvalue = [0.0, 65.679]\nclass = Inducted", fillcolor="#399de5"] ;
170 -> 171 ;
172 [label="gini = 0.0\nsamples = 1\nvalue = [0.668, 0.0]\nclass = Not Inducted", fillcolor="#e58139"] ;
170 -> 172 ;
173 [label="B_AB <= 62.5\ngini = 0.0\nsamples = 2\nvalue = [1.336, 0.0]\nclass = Not Inducted", fillcolor="#e58139"] ;
165 -> 173 ;
174 [label="gini = 0.0\nsamples = 1\nvalue = [0.668, 0.0]\nclass = Not Inducted", fillcolor="#e58139"] ;
173 -> 174 ;
175 [label="gini = 0.0\nsamples = 1\nvalue = [0.668, 0.0]\nclass = Not Inducted", fillcolor="#e58139"] ;
173 -> 175 ;
176 [label="FI_A <= 124.0\ngini = 0.225\nsamples = 111\nvalue = [22.704, 153.251]\nclass = Inducted", fillcolor="#56ace9"] ;
10 -> 176 ;
177 [label="gini = 0.0\nsamples = 6\nvalue = [4.007, 0.0]\nclass = Not Inducted", fillcolor="#e58139"] ;
176 -> 177 ;
178 [label="B_AB <= 994.5\ngini = 0.194\nsamples = 105\nvalue = [18.697, 153.251]\nclass = Inducted", fillcolor="#51a9e8"] ;
176 -> 178 ;
179 [label="gini = 0.0\nsamples = 3\nvalue = [2.003, 0.0]\nclass = Not Inducted", fillcolor="#e58139"] ;
178 -> 179 ;
180 [label="FI_GS <= 1771.5\ngini = 0.177\nsamples = 102\nvalue = [16.694, 153.251]\nclass = Inducted", fillcolor="#4fa8e8"] ;
178 -> 180 ;
181 [label="PI_HR <= 22.0\ngini = 0.054\nsamples = 51\nvalue = [2.671, 93.543]\nclass = Inducted", fillcolor="#3fa0e6"] ;
180 -> 181 ;
182 [label="FI_InnOuts <= 57525.0\ngini = 0.041\nsamples = 50\nvalue = [2.003, 93.543]\nclass = Inducted", fillcolor="#3d9fe6"] ;
181 -> 182 ;
183 [label="B_HR <= 1049.5\ngini = 0.029\nsamples = 47\nvalue = [1.336, 89.562]\nclass = Inducted", fillcolor="#3c9ee5"] ;
182 -> 183 ;
184 [label="B_HR <= 1024.5\ngini = 0.108\nsamples = 13\nvalue = [1.336, 21.893]\nclass = Inducted", fillcolor="#45a3e7"] ;
183 -> 184 ;
185 [label="B_RBI <= 64.5\ngini = 0.057\nsamples = 12\nvalue = [0.668, 21.893]\nclass = Inducted", fillcolor="#3fa0e6"] ;
184 -> 185 ;
186 [label="gini = 0.0\nsamples = 1\nvalue = [0.668, 0.0]\nclass = Not Inducted", fillcolor="#e58139"] ;
185 -> 186 ;
187 [label="gini = 0.0\nsamples = 11\nvalue = [0.0, 21.893]\nclass = Inducted", fillcolor="#399de5"] ;
185 -> 187 ;
188 [label="gini = -0.0\nsamples = 1\nvalue = [0.668, 0.0]\nclass = Not Inducted", fillcolor="#e58139"] ;
184 -> 188 ;
189 [label="gini = 0.0\nsamples = 34\nvalue = [0.0, 67.669]\nclass = Inducted", fillcolor="#399de5"] ;
183 -> 189 ;
190 [label="FI_A <= 3082.5\ngini = 0.246\nsamples = 3\nvalue = [0.668, 3.981]\nclass = Inducted", fillcolor="#5aade9"] ;
182 -> 190 ;
191 [label="gini = 0.0\nsamples = 2\nvalue = [0.0, 3.981]\nclass = Inducted", fillcolor="#399de5"] ;
190 -> 191 ;
192 [label="gini = -0.0\nsamples = 1\nvalue = [0.668, 0.0]\nclass = Not Inducted", fillcolor="#e58139"] ;
190 -> 192 ;
193 [label="gini = 0.0\nsamples = 1\nvalue = [0.668, 0.0]\nclass = Not Inducted", fillcolor="#e58139"] ;
181 -> 193 ;
194 [label="ASF_NUM_YEARS <= 5.5\ngini = 0.308\nsamples = 51\nvalue = [14.023, 59.708]\nclass = Inducted", fillcolor="#68b4eb"] ;
180 -> 194 ;
195 [label="B_AB <= 1493.5\ngini = 0.431\nsamples = 15\nvalue = [8.681, 3.981]\nclass = Not Inducted", fillcolor="#f1bb94"] ;
194 -> 195 ;
196 [label="gini = 0.0\nsamples = 12\nvalue = [8.013, 0.0]\nclass = Not Inducted", fillcolor="#e58139"] ;
195 -> 196 ;
197 [label="FI_DP <= 1701.5\ngini = 0.246\nsamples = 3\nvalue = [0.668, 3.981]\nclass = Inducted", fillcolor="#5aade9"] ;
195 -> 197 ;
198 [label="gini = 0.0\nsamples = 2\nvalue = [0.0, 3.981]\nclass = Inducted", fillcolor="#399de5"] ;
197 -> 198 ;
199 [label="gini = -0.0\nsamples = 1\nvalue = [0.668, 0.0]\nclass = Not Inducted", fillcolor="#e58139"] ;
197 -> 199 ;
200 [label="FI_A <= 153.0\ngini = 0.16\nsamples = 36\nvalue = [5.342, 55.728]\nclass = Inducted", fillcolor="#4ca6e7"] ;
194 -> 200 ;
201 [label="A_G_ALL <= 2643.0\ngini = 0.489\nsamples = 5\nvalue = [2.671, 1.99]\nclass = Not Inducted", fillcolor="#f8dfcd"] ;
200 -> 201 ;
202 [label="gini = -0.0\nsamples = 4\nvalue = [2.671, 0.0]\nclass = Not Inducted", fillcolor="#e58139"] ;
201 -> 202 ;
203 [label="gini = 0.0\nsamples = 1\nvalue = [0.0, 1.99]\nclass = Inducted", fillcolor="#399de5"] ;
201 -> 203 ;
204 [label="FI_InnOuts <= 84087.0\ngini = 0.09\nsamples = 31\nvalue = [2.671, 53.737]\nclass = Inducted", fillcolor="#43a2e6"] ;
200 -> 204 ;
205 [label="B_AB <= 1210.0\ngini = 0.069\nsamples = 30\nvalue = [2.003, 53.737]\nclass = Inducted", fillcolor="#40a1e6"] ;
204 -> 205 ;
206 [label="A_G_ALL <= 2287.5\ngini = 0.376\nsamples = 4\nvalue = [1.336, 3.981]\nclass = Inducted", fillcolor="#7bbeee"] ;
205 -> 206 ;
207 [label="gini = 0.0\nsamples = 2\nvalue = [0.0, 3.981]\nclass = Inducted", fillcolor="#399de5"] ;
206 -> 207 ;
208 [label="FI_E <= 130.5\ngini = 0.0\nsamples = 2\nvalue = [1.336, 0.0]\nclass = Not Inducted", fillcolor="#e58139"] ;
206 -> 208 ;
209 [label="gini = 0.0\nsamples = 1\nvalue = [0.668, 0.0]\nclass = Not Inducted", fillcolor="#e58139"] ;
208 -> 209 ;
210 [label="gini = 0.0\nsamples = 1\nvalue = [0.668, 0.0]\nclass = Not Inducted", fillcolor="#e58139"] ;
208 -> 210 ;
211 [label="B_HR <= 1664.0\ngini = 0.026\nsamples = 26\nvalue = [0.668, 49.757]\nclass = Inducted", fillcolor="#3c9ee5"] ;
205 -> 211 ;
212 [label="gini = 0.0\nsamples = 21\nvalue = [0.0, 41.796]\nclass = Inducted", fillcolor="#399de5"] ;
211 -> 212 ;
213 [label="FI_InnOuts <= 58595.0\ngini = 0.143\nsamples = 5\nvalue = [0.668, 7.961]\nclass = Inducted", fillcolor="#4aa5e7"] ;
211 -> 213 ;
214 [label="gini = 0.0\nsamples = 1\nvalue = [0.668, 0.0]\nclass = Not Inducted", fillcolor="#e58139"] ;
213 -> 214 ;
215 [label="gini = 0.0\nsamples = 4\nvalue = [0.0, 7.961]\nclass = Inducted", fillcolor="#399de5"] ;
213 -> 215 ;
216 [label="gini = -0.0\nsamples = 1\nvalue = [0.668, 0.0]\nclass = Not Inducted", fillcolor="#e58139"] ;
204 -> 216 ;
}